<?xml version="1.0"?>
<opencv_storage>
<cascade>
  <stageType>BOOST</stageType>
  <featureType>LBP</featureType>
  <height>80</height>
  <width>40</width>
  <stageParams>
    <boostType>GAB</boostType>
    <minHitRate>9.9900001287460327e-01</minHitRate>
    <maxFalseAlarm>5.0000000000000000e-01</maxFalseAlarm>
    <weightTrimRate>9.4999999999999996e-01</weightTrimRate>
    <maxDepth>1</maxDepth>
    <maxWeakCount>100</maxWeakCount></stageParams>
  <featureParams>
    <maxCatCount>256</maxCatCount>
    <featSize>1</featSize></featureParams>
  <stageNum>15</stageNum>
  <stages>
    <!-- stage 0 -->
    <_>
      <maxWeakCount>2</maxWeakCount>
      <stageThreshold>-2.7341173961758614e-02</stageThreshold>
      <weakClassifiers>
        <_>
          <internalNodes>
            0 -1 10 -671026983 -654049280 129 1568739329 1073791179
            -1870594048 1610795146 -1003777973</internalNodes>
          <leafValues>
            -9.9004977941513062e-01 1.</leafValues></_>
        <_>
          <internalNodes>
            0 -1 10 -671026983 -654049280 129 1568739329 1073791179
            -1870594048 1610795146 -1003777974</internalNodes>
          <leafValues>
            -1. 9.6270859241485596e-01</leafValues></_></weakClassifiers></_>
    <!-- stage 1 -->
    <_>
      <maxWeakCount>1</maxWeakCount>
      <stageThreshold>9.6078431606292725e-01</stageThreshold>
      <weakClassifiers>
        <_>
          <internalNodes>
            0 -1 2 -799948244 1359413315 15 1342373889 -536772221
            -771686397 -2012608325 -113254261</internalNodes>
          <leafValues>
            -1. 9.6078431606292725e-01</leafValues></_></weakClassifiers></_>
    <!-- stage 2 -->
    <_>
      <maxWeakCount>2</maxWeakCount>
      <stageThreshold>9.9502485245466232e-03</stageThreshold>
      <weakClassifiers>
        <_>
          <internalNodes>
            0 -1 21 -649727841 -2130604030 268468273 287375361
            -1878466549 -939425791 41975963 -351285109</internalNodes>
          <leafValues>
            -9.9004977941513062e-01 1.</leafValues></_>
        <_>
          <internalNodes>
            0 -1 22 -648547329 -1858010878 65561 18939905 1074305029
            1207992322 41975963 -340798837</internalNodes>
          <leafValues>
            -9.8039215803146362e-01 1.</leafValues></_></weakClassifiers></_>
    <!-- stage 3 -->
    <_>
      <maxWeakCount>1</maxWeakCount>
      <stageThreshold>9.0476191043853760e-01</stageThreshold>
      <weakClassifiers>
        <_>
          <internalNodes>
            0 -1 0 -1857956909 -247267309 226492423 -741265408 573583
            -796786520 1149266063 -8142571</internalNodes>
          <leafValues>
            -1. 9.0476191043853760e-01</leafValues></_></weakClassifiers></_>
    <!-- stage 4 -->
    <_>
      <maxWeakCount>2</maxWeakCount>
      <stageThreshold>-4.0747322142124176e-02</stageThreshold>
      <weakClassifiers>
        <_>
          <internalNodes>
            0 -1 23 -230432321 -1144942528 68 -1795091838 1082343563
            -2146432768 -1065251191 -102770017</internalNodes>
          <leafValues>
            -9.7979795932769775e-01 9.2156863212585449e-01</leafValues></_>
        <_>
          <internalNodes>
            0 -1 19 1396829535 -402587647 1644429329 -1862073853
            -1073110607 -939393022 -1063943669 -863778661</internalNodes>
          <leafValues>
            -9.6231597661972046e-01 9.6546632051467896e-01</leafValues></_></weakClassifiers></_>
    <!-- stage 5 -->
    <_>
      <maxWeakCount>2</maxWeakCount>
      <stageThreshold>-9.2693150043487549e-02</stageThreshold>
      <weakClassifiers>
        <_>
          <internalNodes>
            0 -1 20 -1659110949 864551955 1281 -1794047807 -1845493541
            -327155309 -1572695910 -16531422</internalNodes>
          <leafValues>
            -9.7979795932769775e-01 9.2156863212585449e-01</leafValues></_>
        <_>
          <internalNodes>
            0 -1 6 1532041695 -208584431 8421403 1090584961 786619
            -1064828784 -2139042679 -1081472381</internalNodes>
          <leafValues>
            -9.9022358655929565e-01 8.8710480928421021e-01</leafValues></_></weakClassifiers></_>
    <!-- stage 6 -->
    <_>
      <maxWeakCount>2</maxWeakCount>
      <stageThreshold>-4.2188353836536407e-02</stageThreshold>
      <weakClassifiers>
        <_>
          <internalNodes>
            0 -1 4 -851191237 -142015997 1080043779 -1054833408
            -2113292217 -2143289214 -1744723823 -184307609</internalNodes>
          <leafValues>
            -9.6969699859619141e-01 9.0196079015731812e-01</leafValues></_>
        <_>
          <internalNodes>
            0 -1 8 -108209197 -788428798 1073741829 -1325203375
            -805289853 176160768 1363214471 -284166485</internalNodes>
          <leafValues>
            -9.4414913654327393e-01 9.3455559015274048e-01</leafValues></_></weakClassifiers></_>
    <!-- stage 7 -->
    <_>
      <maxWeakCount>2</maxWeakCount>
      <stageThreshold>-1.0682936757802963e-01</stageThreshold>
      <weakClassifiers>
        <_>
          <internalNodes>
            0 -1 12 -20593815 -1056896383 0 285327362 1082302531
            -2130116606 -1006403581 -517234037</internalNodes>
          <leafValues>
            -9.7969543933868408e-01 9.0291261672973633e-01</leafValues></_>
        <_>
          <internalNodes>
            0 -1 25 -1840135201 -1857990647 287 -1249116063 -2130665309
            -1469923328 271353984 -372514607</internalNodes>
          <leafValues>
            -9.8054510354995728e-01 8.7286609411239624e-01</leafValues></_></weakClassifiers></_>
    <!-- stage 8 -->
    <_>
      <maxWeakCount>2</maxWeakCount>
      <stageThreshold>-4.0623217821121216e-02</stageThreshold>
      <weakClassifiers>
        <_>
          <internalNodes>
            0 -1 16 311425455 -1862201335 -2121187327 -1051639759
            -1717380735 -1040121856 -401059607 -35530548</internalNodes>
          <leafValues>
            -9.8974359035491943e-01 8.8571429252624512e-01</leafValues></_>
        <_>
          <internalNodes>
            0 -1 14 -974267957 272859136 -1879044095 54624256
            -1878998847 -2147483648 1082179595 -842022453</internalNodes>
          <leafValues>
            -9.2633748054504395e-01 9.8168760538101196e-01</leafValues></_></weakClassifiers></_>
    <!-- stage 9 -->
    <_>
      <maxWeakCount>1</maxWeakCount>
      <stageThreshold>8.6915886402130127e-01</stageThreshold>
      <weakClassifiers>
        <_>
          <internalNodes>
            0 -1 9 -243936113 1545289873 -1073739767 557916163
            -2147384699 -1333753719 -1073708919 1940120075</internalNodes>
          <leafValues>
            -1. 8.6915886402130127e-01</leafValues></_></weakClassifiers></_>
    <!-- stage 10 -->
    <_>
      <maxWeakCount>2</maxWeakCount>
      <stageThreshold>-1.1453792452812195e-01</stageThreshold>
      <weakClassifiers>
        <_>
          <internalNodes>
            0 -1 15 -464530597 -1878966269 68157505 34754562 -805076805
            -1862205312 -251653896 -77868918</internalNodes>
          <leafValues>
            -9.6923077106475830e-01 8.4761905670166016e-01</leafValues></_>
        <_>
          <internalNodes>
            0 -1 18 -653528545 -1862023158 1342378000 428048523
            -1056130902 -234872832 -2059306839 -575942335</internalNodes>
          <leafValues>
            -9.6215695142745972e-01 8.9463424682617188e-01</leafValues></_></weakClassifiers></_>
    <!-- stage 11 -->
    <_>
      <maxWeakCount>2</maxWeakCount>
      <stageThreshold>-7.8631997108459473e-02</stageThreshold>
      <weakClassifiers>
        <_>
          <internalNodes>
            0 -1 7 1493275093 1359020049 1358959517 458293249 570502282
            -1409245056 -2013259077 -276249976</internalNodes>
          <leafValues>
            -9.6984922885894775e-01 9.2079210281372070e-01</leafValues></_>
        <_>
          <internalNodes>
            0 -1 24 -2125082145 -1860632319 -1726906299 -855576438
            -1073045495 -1451079673 -2029748117 -3440229</internalNodes>
          <leafValues>
            -9.9029964208602905e-01 8.9121723175048828e-01</leafValues></_></weakClassifiers></_>
    <!-- stage 12 -->
    <_>
      <maxWeakCount>2</maxWeakCount>
      <stageThreshold>-5.9237930923700333e-02</stageThreshold>
      <weakClassifiers>
        <_>
          <internalNodes>
            0 -1 13 -786382543 285278753 5572 395509763 -1876885478
            -536838128 -1073737591 -880639959</internalNodes>
          <leafValues>
            -9.7979795932769775e-01 9.2156863212585449e-01</leafValues></_>
        <_>
          <internalNodes>
            0 -1 17 -784080517 1091567645 1 -1577058047 33620128
            -2009063296 8323 -50362168</internalNodes>
          <leafValues>
            -9.8080658912658691e-01 9.3330490589141846e-01</leafValues></_></weakClassifiers></_>
    <!-- stage 13 -->
    <_>
      <maxWeakCount>2</maxWeakCount>
      <stageThreshold>-3.7518415600061417e-02</stageThreshold>
      <weakClassifiers>
        <_>
          <internalNodes>
            0 -1 5 268448075 268517440 32833 1216937988 50348297
            -2147426175 -2113896187 -342629881</internalNodes>
          <leafValues>
            -9.7029703855514526e-01 9.7959184646606445e-01</leafValues></_>
        <_>
          <internalNodes>
            0 -1 1 1162205625 1413480496 449 318832896 301998641 8916993
            33589762 -1458864118</internalNodes>
          <leafValues>
            -9.8057448863983154e-01 9.3277859687805176e-01</leafValues></_></weakClassifiers></_>
    <!-- stage 14 -->
    <_>
      <maxWeakCount>2</maxWeakCount>
      <stageThreshold>-6.8307151086628437e-03</stageThreshold>
      <weakClassifiers>
        <_>
          <internalNodes>
            0 -1 3 1481810323 8650752 65537 -2147401600 -2013166389
            -2147483648 -2145255286 -653619185</internalNodes>
          <leafValues>
            -9.3236714601516724e-01 1.</leafValues></_>
        <_>
          <internalNodes>
            0 -1 11 -520008939 -805240832 32770 -801013742 536920137
            67239936 -2113601534 1203997195</internalNodes>
          <leafValues>
            -9.7165060043334961e-01 9.2553645372390747e-01</leafValues></_></weakClassifiers></_></stages>
  <features>
    <_>
      <rect>
        0 44 10 7</rect></_>
    <_>
      <rect>
        0 68 4 2</rect></_>
    <_>
      <rect>
        1 24 12 10</rect></_>
    <_>
      <rect>
        1 25 4 11</rect></_>
    <_>
      <rect>
        1 40 4 6</rect></_>
    <_>
      <rect>
        1 54 3 5</rect></_>
    <_>
      <rect>
        1 71 10 3</rect></_>
    <_>
      <rect>
        1 74 11 2</rect></_>
    <_>
      <rect>
        2 8 6 11</rect></_>
    <_>
      <rect>
        4 1 11 9</rect></_>
    <_>
      <rect>
        14 45 8 6</rect></_>
    <_>
      <rect>
        16 11 8 23</rect></_>
    <_>
      <rect>
        18 17 5 19</rect></_>
    <_>
      <rect>
        19 30 7 5</rect></_>
    <_>
      <rect>
        20 4 4 14</rect></_>
    <_>
      <rect>
        21 4 4 10</rect></_>
    <_>
      <rect>
        21 36 6 6</rect></_>
    <_>
      <rect>
        21 44 3 4</rect></_>
    <_>
      <rect>
        23 33 5 9</rect></_>
    <_>
      <rect>
        23 39 5 7</rect></_>
    <_>
      <rect>
        25 71 5 3</rect></_>
    <_>
      <rect>
        27 64 4 5</rect></_>
    <_>
      <rect>
        27 65 4 5</rect></_>
    <_>
      <rect>
        28 61 3 6</rect></_>
    <_>
      <rect>
        28 70 3 3</rect></_>
    <_>
      <rect>
        30 68 3 4</rect></_></features></cascade>
</opencv_storage>
